<?xml version="1.0"?>
<opencv_storage>
<cascade>
  <stageType>BOOST</stageType>
  <featureType>HAAR</featureType>
  <height>24</height>
  <width>32</width>
  <stageParams>
    <boostType>GAB</boostType>
    <minHitRate>9.9500000476837158e-01</minHitRate>
    <maxFalseAlarm>5.0000000000000000e-01</maxFalseAlarm>
    <weightTrimRate>9.4999998807907104e-01</weightTrimRate>
    <maxDepth>1</maxDepth>
    <maxWeakCount>100</maxWeakCount></stageParams>
  <featureParams>
    <maxCatCount>0</maxCatCount>
    <featSize>1</featSize>
    <mode>BASIC</mode></featureParams>
  <stageNum>20</stageNum>
  <stages>
    <!-- stage 0 -->
    <_>
      <maxWeakCount>2</maxWeakCount>
      <stageThreshold>-1.9681659340858459e-01</stageThreshold>
      <weakClassifiers>
        <_>
          <internalNodes>
            0 -1 153 -9.8733142018318176e-02</internalNodes>
          <leafValues>
            9.2592591047286987e-01 -7.1186441183090210e-01</leafValues></_>
        <_>
          <internalNodes>
            0 -1 73 -5.2325354772619903e-05</internalNodes>
          <leafValues>
            -9.1877955198287964e-01 5.1504778861999512e-01</leafValues></_></weakClassifiers></_>
    <!-- stage 1 -->
    <_>
      <maxWeakCount>2</maxWeakCount>
      <stageThreshold>-3.5348552465438843e-01</stageThreshold>
      <weakClassifiers>
        <_>
          <internalNodes>
            0 -1 81 7.1553766727447510e-02</internalNodes>
          <leafValues>
            -7.8761059045791626e-01 9.3220341205596924e-01</leafValues></_>
        <_>
          <internalNodes>
            0 -1 175 2.0435773767530918e-03</internalNodes>
          <leafValues>
            4.3412509560585022e-01 -9.7563433647155762e-01</leafValues></_></weakClassifiers></_>
    <!-- stage 2 -->
    <_>
      <maxWeakCount>2</maxWeakCount>
      <stageThreshold>-3.0855649709701538e-01</stageThreshold>
      <weakClassifiers>
        <_>
          <internalNodes>
            0 -1 63 1.9910103082656860e-01</internalNodes>
          <leafValues>
            -8.0000001192092896e-01 8.7096774578094482e-01</leafValues></_>
        <_>
          <internalNodes>
            0 -1 179 1.7337621829938143e-04</internalNodes>
          <leafValues>
            4.9144348502159119e-01 -1.</leafValues></_></weakClassifiers></_>
    <!-- stage 3 -->
    <_>
      <maxWeakCount>2</maxWeakCount>
      <stageThreshold>-2.5435993075370789e-01</stageThreshold>
      <weakClassifiers>
        <_>
          <internalNodes>
            0 -1 64 9.0225502848625183e-02</internalNodes>
          <leafValues>
            -7.5438594818115234e-01 8.9655172824859619e-01</leafValues></_>
        <_>
          <internalNodes>
            0 -1 48 4.7423882642760873e-04</internalNodes>
          <leafValues>
            5.0002604722976685e-01 -1.</leafValues></_></weakClassifiers></_>
    <!-- stage 4 -->
    <_>
      <maxWeakCount>2</maxWeakCount>
      <stageThreshold>-1.3814370334148407e-01</stageThreshold>
      <weakClassifiers>
        <_>
          <internalNodes>
            0 -1 151 4.8456467688083649e-02</internalNodes>
          <leafValues>
            -6.2601625919342041e-01 8.7755101919174194e-01</leafValues></_>
        <_>
          <internalNodes>
            0 -1 53 -3.5316705179866403e-05</internalNodes>
          <leafValues>
            -1. 4.8787254095077515e-01</leafValues></_></weakClassifiers></_>
    <!-- stage 5 -->
    <_>
      <maxWeakCount>2</maxWeakCount>
      <stageThreshold>-2.0781318843364716e-01</stageThreshold>
      <weakClassifiers>
        <_>
          <internalNodes>
            0 -1 114 1.8019658327102661e-01</internalNodes>
          <leafValues>
            -6.6371679306030273e-01 6.9491523504257202e-01</leafValues></_>
        <_>
          <internalNodes>
            0 -1 170 2.3289350792765617e-04</internalNodes>
          <leafValues>
            4.5590361952781677e-01 -1.</leafValues></_></weakClassifiers></_>
    <!-- stage 6 -->
    <_>
      <maxWeakCount>5</maxWeakCount>
      <stageThreshold>-1.4002518653869629e+00</stageThreshold>
      <weakClassifiers>
        <_>
          <internalNodes>
            0 -1 108 1.5791139006614685e-01</internalNodes>
          <leafValues>
            -7.0370370149612427e-01 6.5625000000000000e-01</leafValues></_>
        <_>
          <internalNodes>
            0 -1 110 -1.8455356359481812e-02</internalNodes>
          <leafValues>
            5.4563534259796143e-01 -6.8560600280761719e-01</leafValues></_>
        <_>
          <internalNodes>
            0 -1 181 8.6257743532769382e-05</internalNodes>
          <leafValues>
            4.0760314464569092e-01 -9.8104679584503174e-01</leafValues></_>
        <_>
          <internalNodes>
            0 -1 173 -1.1993607040494680e-04</internalNodes>
          <leafValues>
            -7.8555953502655029e-01 4.7074237465858459e-01</leafValues></_>
        <_>
          <internalNodes>
            0 -1 178 -2.1061071311123669e-04</internalNodes>
          <leafValues>
            -9.1584408283233643e-01 3.6701428890228271e-01</leafValues></_></weakClassifiers></_>
    <!-- stage 7 -->
    <_>
      <maxWeakCount>1</maxWeakCount>
      <stageThreshold>2.6605504751205444e-01</stageThreshold>
      <weakClassifiers>
        <_>
          <internalNodes>
            0 -1 111 1.3503815280273557e-03</internalNodes>
          <leafValues>
            2.6605504751205444e-01 -1.</leafValues></_></weakClassifiers></_>
    <!-- stage 8 -->
    <_>
      <maxWeakCount>2</maxWeakCount>
      <stageThreshold>-3.2186689972877502e-01</stageThreshold>
      <weakClassifiers>
        <_>
          <internalNodes>
            0 -1 86 1.0445208102464676e-01</internalNodes>
          <leafValues>
            -7.2222220897674561e-01 6.8750000000000000e-01</leafValues></_>
        <_>
          <internalNodes>
            0 -1 171 -1.1028391309082508e-03</internalNodes>
          <leafValues>
            -9.5169585943222046e-01 4.0035530924797058e-01</leafValues></_></weakClassifiers></_>
    <!-- stage 9 -->
    <_>
      <maxWeakCount>2</maxWeakCount>
      <stageThreshold>-2.3025305569171906e-01</stageThreshold>
      <weakClassifiers>
        <_>
          <internalNodes>
            0 -1 92 1.9261977076530457e-01</internalNodes>
          <leafValues>
            -7.3214286565780640e-01 8.0000001192092896e-01</leafValues></_>
        <_>
          <internalNodes>
            0 -1 96 -3.3517011906951666e-03</internalNodes>
          <leafValues>
            -9.5800912380218506e-01 5.0188982486724854e-01</leafValues></_></weakClassifiers></_>
    <!-- stage 10 -->
    <_>
      <maxWeakCount>6</maxWeakCount>
      <stageThreshold>-1.5801448822021484e+00</stageThreshold>
      <weakClassifiers>
        <_>
          <internalNodes>
            0 -1 137 1.5132035514398012e-05</internalNodes>
          <leafValues>
            -8.2142859697341919e-01 9.6666663885116577e-01</leafValues></_>
        <_>
          <internalNodes>
            0 -1 112 -1.2116862460970879e-02</internalNodes>
          <leafValues>
            7.9422730207443237e-01 -7.2638225555419922e-01</leafValues></_>
        <_>
          <internalNodes>
            0 -1 117 -1.2559892638819292e-05</internalNodes>
          <leafValues>
            8.4064030647277832e-01 -4.1985827684402466e-01</leafValues></_>
        <_>
          <internalNodes>
            0 -1 45 2.4488868657499552e-03</internalNodes>
          <leafValues>
            4.0849444270133972e-01 -9.1146081686019897e-01</leafValues></_>
        <_>
          <internalNodes>
            0 -1 120 1.5132035514398012e-05</internalNodes>
          <leafValues>
            -4.5868876576423645e-01 9.0498685836791992e-01</leafValues></_>
        <_>
          <internalNodes>
            0 -1 75 -9.2123489594087005e-04</internalNodes>
          <leafValues>
            -7.5433182716369629e-01 4.3771860003471375e-01</leafValues></_></weakClassifiers></_>
    <!-- stage 11 -->
    <_>
      <maxWeakCount>100</maxWeakCount>
      <stageThreshold>-2.0126757621765137e+00</stageThreshold>
      <weakClassifiers>
        <_>
          <internalNodes>
            0 -1 98 2.2328861057758331e-02</internalNodes>
          <leafValues>
            -9.2156863212585449e-01 8.5714286565780640e-01</leafValues></_>
        <_>
          <internalNodes>
            0 -1 118 -9.9715587566606700e-05</internalNodes>
          <leafValues>
            7.3911267518997192e-01 -8.6276543140411377e-01</leafValues></_>
        <_>
          <internalNodes>
            0 -1 143 3.3362975955242291e-05</internalNodes>
          <leafValues>
            -5.2721035480499268e-01 8.0583477020263672e-01</leafValues></_>
        <_>
          <internalNodes>
            0 -1 162 5.6551001034677029e-04</internalNodes>
          <leafValues>
            4.4622701406478882e-01 -8.2883882522583008e-01</leafValues></_>
        <_>
          <internalNodes>
            0 -1 149 1.5132035514398012e-05</internalNodes>
          <leafValues>
            -3.4553176164627075e-01 9.4540864229202271e-01</leafValues></_>
        <_>
          <internalNodes>
            0 -1 42 3.8972543552517891e-03</internalNodes>
          <leafValues>
            2.4386085569858551e-01 -9.4151777029037476e-01</leafValues></_>
        <_>
          <internalNodes>
            0 -1 72 3.1726050656288862e-04</internalNodes>
          <leafValues>
            -1.8047605454921722e-01 9.6797794103622437e-01</leafValues></_>
        <_>
          <internalNodes>
            0 -1 115 -2.0395037718117237e-03</internalNodes>
          <leafValues>
            -9.7540134191513062e-01 1.4077970385551453e-01</leafValues></_>
        <_>
          <internalNodes>
            0 -1 80 4.6486203791573644e-04</internalNodes>
          <leafValues>
            -1.1439649015665054e-01 9.4145494699478149e-01</leafValues></_>
        <_>
          <internalNodes>
            0 -1 167 -1.3890333939343691e-03</internalNodes>
          <leafValues>
            -9.5324361324310303e-01 9.5845036208629608e-02</leafValues></_>
        <_>
          <internalNodes>
            0 -1 132 -5.1518301916075870e-05</internalNodes>
          <leafValues>
            8.9581185579299927e-01 -4.8509817570447922e-02</leafValues></_>
        <_>
          <internalNodes>
            0 -1 62 7.5780197221320122e-05</internalNodes>
          <leafValues>
            5.9990562498569489e-02 -1.</leafValues></_>
        <_>
          <internalNodes>
            0 -1 166 -1.5225541574181989e-05</internalNodes>
          <leafValues>
            1. -4.1245751082897186e-02</leafValues></_>
        <_>
          <internalNodes>
            0 -1 46 -3.1329386401921511e-03</internalNodes>
          <leafValues>
            -1. 3.3890604972839355e-02</leafValues></_>
        <_>
          <internalNodes>
            0 -1 128 -1.9521167268976569e-03</internalNodes>
          <leafValues>
            1. -1.7811322584748268e-02</leafValues></_>
        <_>
          <internalNodes>
            0 -1 168 -1.8280291697010398e-03</internalNodes>
          <leafValues>
            -1. 2.0769082009792328e-02</leafValues></_>
        <_>
          <internalNodes>
            0 -1 52 3.6951564252376556e-03</internalNodes>
          <leafValues>
            -1.6317043453454971e-02 1.</leafValues></_>
        <_>
          <internalNodes>
            0 -1 32 1.9252686761319637e-03</internalNodes>
          <leafValues>
            1.6291311010718346e-02 -1.</leafValues></_>
        <_>
          <internalNodes>
            0 -1 25 7.7277451055124402e-05</internalNodes>
          <leafValues>
            -3.2290527597069740e-03 1.</leafValues></_>
        <_>
          <internalNodes>
            0 -1 9 -8.7412662105634809e-04</internalNodes>
          <leafValues>
            -1. 8.7314816191792488e-03</leafValues></_>
        <_>
          <internalNodes>
            0 -1 0 -3.6209353129379451e-04</internalNodes>
          <leafValues>
            1. -1.7042947001755238e-03</leafValues></_>
        <_>
          <internalNodes>
            0 -1 6 1.3778572611045092e-04</internalNodes>
          <leafValues>
            1.7045149579644203e-03 -1.</leafValues></_>
        <_>
          <internalNodes>
            0 -1 1 -3.6847806768491864e-05</internalNodes>
          <leafValues>
            1. -1.5669318381696939e-03</leafValues></_>
        <_>
          <internalNodes>
            0 -1 1 -7.3069415520876646e-05</internalNodes>
          <leafValues>
            -1. 1.5669321874156594e-03</leafValues></_>
        <_>
          <internalNodes>
            0 -1 1 -3.6847806768491864e-05</internalNodes>
          <leafValues>
            1. -1.5669321874156594e-03</leafValues></_>
        <_>
          <internalNodes>
            0 -1 1 -7.3069415520876646e-05</internalNodes>
          <leafValues>
            -1. 1.5669321874156594e-03</leafValues></_>
        <_>
          <internalNodes>
            0 -1 1 -3.6847806768491864e-05</internalNodes>
          <leafValues>
            1. -1.5669321874156594e-03</leafValues></_>
        <_>
          <internalNodes>
            0 -1 1 -2.8940039555891417e-05</internalNodes>
          <leafValues>
            -1. 1.5669321874156594e-03</leafValues></_>
        <_>
          <internalNodes>
            0 -1 1 -3.6847806768491864e-05</internalNodes>
          <leafValues>
            1. -1.5669321874156594e-03</leafValues></_>
        <_>
          <internalNodes>
            0 -1 1 -2.8940039555891417e-05</internalNodes>
          <leafValues>
            -1. 1.5669321874156594e-03</leafValues></_>
        <_>
          <internalNodes>
            0 -1 1 -3.6847806768491864e-05</internalNodes>
          <leafValues>
            1. -1.5669321874156594e-03</leafValues></_>
        <_>
          <internalNodes>
            0 -1 1 -2.8940039555891417e-05</internalNodes>
          <leafValues>
            -1. 1.5669321874156594e-03</leafValues></_>
        <_>
          <internalNodes>
            0 -1 1 -3.6847806768491864e-05</internalNodes>
          <leafValues>
            1. -1.5669321874156594e-03</leafValues></_>
        <_>
          <internalNodes>
            0 -1 1 -2.8940039555891417e-05</internalNodes>
          <leafValues>
            -1. 1.5669321874156594e-03</leafValues></_>
        <_>
          <internalNodes>
            0 -1 1 -3.6847806768491864e-05</internalNodes>
          <leafValues>
            1. -1.5669321874156594e-03</leafValues></_>
        <_>
          <internalNodes>
            0 -1 1 -2.8940039555891417e-05</internalNodes>
          <leafValues>
            -1. 1.5669321874156594e-03</leafValues></_>
        <_>
          <internalNodes>
            0 -1 1 -3.6847806768491864e-05</internalNodes>
          <leafValues>
            1. -1.5669321874156594e-03</leafValues></_>
        <_>
          <internalNodes>
            0 -1 1 -2.8940039555891417e-05</internalNodes>
          <leafValues>
            -1. 1.5669321874156594e-03</leafValues></_>
        <_>
          <internalNodes>
            0 -1 1 -3.6847806768491864e-05</internalNodes>
          <leafValues>
            1. -1.5669321874156594e-03</leafValues></_>
        <_>
          <internalNodes>
            0 -1 1 -2.8940039555891417e-05</internalNodes>
          <leafValues>
            -1. 1.5669321874156594e-03</leafValues></_>
        <_>
          <internalNodes>
            0 -1 1 -3.6847806768491864e-05</internalNodes>
          <leafValues>
            1. -1.5669321874156594e-03</leafValues></_>
        <_>
          <internalNodes>
            0 -1 1 -2.8940039555891417e-05</internalNodes>
          <leafValues>
            -1. 1.5669321874156594e-03</leafValues></_>
        <_>
          <internalNodes>
            0 -1 1 -3.6847806768491864e-05</internalNodes>
          <leafValues>
            1. -1.5669321874156594e-03</leafValues></_>
        <_>
          <internalNodes>
            0 -1 1 -2.8940039555891417e-05</internalNodes>
          <leafValues>
            -1. 1.5669321874156594e-03</leafValues></_>
        <_>
          <internalNodes>
            0 -1 1 -3.6847806768491864e-05</internalNodes>
          <leafValues>
            1. -1.5669321874156594e-03</leafValues></_>
        <_>
          <internalNodes>
            0 -1 1 -2.8940039555891417e-05</internalNodes>
          <leafValues>
            -1. 1.5669321874156594e-03</leafValues></_>
        <_>
          <internalNodes>
            0 -1 1 -3.6847806768491864e-05</internalNodes>
          <leafValues>
            1. -1.5669321874156594e-03</leafValues></_>
        <_>
          <internalNodes>
            0 -1 1 -2.8940039555891417e-05</internalNodes>
          <leafValues>
            -1. 1.5669321874156594e-03</leafValues></_>
        <_>
          <internalNodes>
            0 -1 1 -3.6847806768491864e-05</internalNodes>
          <leafValues>
            1. -1.5669321874156594e-03</leafValues></_>
        <_>
          <internalNodes>
            0 -1 1 -2.8940039555891417e-05</internalNodes>
          <leafValues>
            -1. 1.5669321874156594e-03</leafValues></_>
        <_>
          <internalNodes>
            0 -1 1 -3.6847806768491864e-05</internalNodes>
          <leafValues>
            1. -1.5669321874156594e-03</leafValues></_>
        <_>
          <internalNodes>
            0 -1 1 -2.8940039555891417e-05</internalNodes>
          <leafValues>
            -1. 1.5669321874156594e-03</leafValues></_>
        <_>
          <internalNodes>
            0 -1 1 -3.6847806768491864e-05</internalNodes>
          <leafValues>
            1. -1.5669321874156594e-03</leafValues></_>
        <_>
          <internalNodes>
            0 -1 1 -2.8940039555891417e-05</internalNodes>
          <leafValues>
            -1. 1.5669321874156594e-03</leafValues></_>
        <_>
          <internalNodes>
            0 -1 1 -3.6847806768491864e-05</internalNodes>
          <leafValues>
            1. -1.5669321874156594e-03</leafValues></_>
        <_>
          <internalNodes>
            0 -1 1 -2.8940039555891417e-05</internalNodes>
          <leafValues>
            -1. 1.5669321874156594e-03</leafValues></_>
        <_>
          <internalNodes>
            0 -1 1 -3.6847806768491864e-05</internalNodes>
          <leafValues>
            1. -1.5669321874156594e-03</leafValues></_>
        <_>
          <internalNodes>
            0 -1 1 -2.8940039555891417e-05</internalNodes>
          <leafValues>
            -1. 1.5669321874156594e-03</leafValues></_>
        <_>
          <internalNodes>
            0 -1 1 -3.6847806768491864e-05</internalNodes>
          <leafValues>
            1. -1.5669321874156594e-03</leafValues></_>
        <_>
          <internalNodes>
            0 -1 1 -2.8940039555891417e-05</internalNodes>
          <leafValues>
            -1. 1.5669321874156594e-03</leafValues></_>
        <_>
          <internalNodes>
            0 -1 1 -3.6847806768491864e-05</internalNodes>
          <leafValues>
            1. -1.5669321874156594e-03</leafValues></_>
        <_>
          <internalNodes>
            0 -1 1 -2.8940039555891417e-05</internalNodes>
          <leafValues>
            -1. 1.5669321874156594e-03</leafValues></_>
        <_>
          <internalNodes>
            0 -1 1 -3.6847806768491864e-05</internalNodes>
          <leafValues>
            1. -1.5669321874156594e-03</leafValues></_>
        <_>
          <internalNodes>
            0 -1 1 -2.8940039555891417e-05</internalNodes>
          <leafValues>
            -1. 1.5669321874156594e-03</leafValues></_>
        <_>
          <internalNodes>
            0 -1 1 -3.6847806768491864e-05</internalNodes>
          <leafValues>
            1. -1.5669321874156594e-03</leafValues></_>
        <_>
          <internalNodes>
            0 -1 1 -2.8940039555891417e-05</internalNodes>
          <leafValues>
            -1. 1.5669321874156594e-03</leafValues></_>
        <_>
          <internalNodes>
            0 -1 1 -3.6847806768491864e-05</internalNodes>
          <leafValues>
            1. -1.5669321874156594e-03</leafValues></_>
        <_>
          <internalNodes>
            0 -1 1 -2.8940039555891417e-05</internalNodes>
          <leafValues>
            -1. 1.5669321874156594e-03</leafValues></_>
        <_>
          <internalNodes>
            0 -1 1 -3.6847806768491864e-05</internalNodes>
          <leafValues>
            1. -1.5669321874156594e-03</leafValues></_>
        <_>
          <internalNodes>
            0 -1 1 -2.8940039555891417e-05</internalNodes>
          <leafValues>
            -1. 1.5669321874156594e-03</leafValues></_>
        <_>
          <internalNodes>
            0 -1 1 -3.6847806768491864e-05</internalNodes>
          <leafValues>
            1. -1.5669321874156594e-03</leafValues></_>
        <_>
          <internalNodes>
            0 -1 1 -2.8940039555891417e-05</internalNodes>
          <leafValues>
            -1. 1.5669321874156594e-03</leafValues></_>
        <_>
          <internalNodes>
            0 -1 1 -3.6847806768491864e-05</internalNodes>
          <leafValues>
            1. -1.5669321874156594e-03</leafValues></_>
        <_>
          <internalNodes>
            0 -1 1 -2.8940039555891417e-05</internalNodes>
          <leafValues>
            -1. 1.5669321874156594e-03</leafValues></_>
        <_>
          <internalNodes>
            0 -1 1 -3.6847806768491864e-05</internalNodes>
          <leafValues>
            1. -1.5669321874156594e-03</leafValues></_>
        <_>
          <internalNodes>
            0 -1 1 -2.8940039555891417e-05</internalNodes>
          <leafValues>
            -1. 1.5669321874156594e-03</leafValues></_>
        <_>
          <internalNodes>
            0 -1 1 -3.6847806768491864e-05</internalNodes>
          <leafValues>
            1. -1.5669321874156594e-03</leafValues></_>
        <_>
          <internalNodes>
            0 -1 1 -2.8940039555891417e-05</internalNodes>
          <leafValues>
            -1. 1.5669321874156594e-03</leafValues></_>
        <_>
          <internalNodes>
            0 -1 1 -3.6847806768491864e-05</internalNodes>
          <leafValues>
            1. -1.5669321874156594e-03</leafValues></_>
        <_>
          <internalNodes>
            0 -1 1 -2.8940039555891417e-05</internalNodes>
          <leafValues>
            -1. 1.5669321874156594e-03</leafValues></_>
        <_>
          <internalNodes>
            0 -1 1 -3.6847806768491864e-05</internalNodes>
          <leafValues>
            1. -1.5669321874156594e-03</leafValues></_>
        <_>
          <internalNodes>
            0 -1 1 -2.8940039555891417e-05</internalNodes>
          <leafValues>
            -1. 1.5669321874156594e-03</leafValues></_>
        <_>
          <internalNodes>
            0 -1 1 -3.6847806768491864e-05</internalNodes>
          <leafValues>
            1. -1.5669321874156594e-03</leafValues></_>
        <_>
          <internalNodes>
            0 -1 1 -2.8940039555891417e-05</internalNodes>
          <leafValues>
            -1. 1.5669321874156594e-03</leafValues></_>
        <_>
          <internalNodes>
            0 -1 1 -3.6847806768491864e-05</internalNodes>
          <leafValues>
            1. -1.5669321874156594e-03</leafValues></_>
        <_>
          <internalNodes>
            0 -1 1 -2.8940039555891417e-05</internalNodes>
          <leafValues>
            -1. 1.5669321874156594e-03</leafValues></_>
        <_>
          <internalNodes>
            0 -1 1 -3.6847806768491864e-05</internalNodes>
          <leafValues>
            1. -1.5669321874156594e-03</leafValues></_>
        <_>
          <internalNodes>
            0 -1 1 -2.8940039555891417e-05</internalNodes>
          <leafValues>
            -1. 1.5669321874156594e-03</leafValues></_>
        <_>
          <internalNodes>
            0 -1 1 -3.6847806768491864e-05</internalNodes>
          <leafValues>
            1. -1.5669321874156594e-03</leafValues></_>
        <_>
          <internalNodes>
            0 -1 1 -2.8940039555891417e-05</internalNodes>
          <leafValues>
            -1. 1.5669321874156594e-03</leafValues></_>
        <_>
          <internalNodes>
            0 -1 1 -3.6847806768491864e-05</internalNodes>
          <leafValues>
            1. -1.5669321874156594e-03</leafValues></_>
        <_>
          <internalNodes>
            0 -1 1 -2.8940039555891417e-05</internalNodes>
          <leafValues>
            -1. 1.5669321874156594e-03</leafValues></_>
        <_>
          <internalNodes>
            0 -1 1 -3.6847806768491864e-05</internalNodes>
          <leafValues>
            1. -1.5669321874156594e-03</leafValues></_>
        <_>
          <internalNodes>
            0 -1 1 -2.8940039555891417e-05</internalNodes>
          <leafValues>
            -1. 1.5669321874156594e-03</leafValues></_>
        <_>
          <internalNodes>
            0 -1 1 -3.6847806768491864e-05</internalNodes>
          <leafValues>
            1. -1.5669321874156594e-03</leafValues></_>
        <_>
          <internalNodes>
            0 -1 1 -2.8940039555891417e-05</internalNodes>
          <leafValues>
            -1. 1.5669321874156594e-03</leafValues></_>
        <_>
          <internalNodes>
            0 -1 1 -3.6847806768491864e-05</internalNodes>
          <leafValues>
            1. -1.5669321874156594e-03</leafValues></_>
        <_>
          <internalNodes>
            0 -1 1 -2.8940039555891417e-05</internalNodes>
          <leafValues>
            -1. 1.5669321874156594e-03</leafValues></_>
        <_>
          <internalNodes>
            0 -1 1 -3.6847806768491864e-05</internalNodes>
          <leafValues>
            1. -1.5669321874156594e-03</leafValues></_>
        <_>
          <internalNodes>
            0 -1 1 -2.8940039555891417e-05</internalNodes>
          <leafValues>
            -1. 1.5669321874156594e-03</leafValues></_></weakClassifiers></_>
    <!-- stage 12 -->
    <_>
      <maxWeakCount>34</maxWeakCount>
      <stageThreshold>-2.0471723079681396e+00</stageThreshold>
      <weakClassifiers>
        <_>
          <internalNodes>
            0 -1 102 1.8071386218070984e-01</internalNodes>
          <leafValues>
            -7.8947371244430542e-01 9.6551722288131714e-01</leafValues></_>
        <_>
          <internalNodes>
            0 -1 152 2.0656323613366112e-05</internalNodes>
          <leafValues>
            -6.6580832004547119e-01 8.6896371841430664e-01</leafValues></_>
        <_>
          <internalNodes>
            0 -1 133 -6.7303044488653541e-05</internalNodes>
          <leafValues>
            7.2609013319015503e-01 -5.1332473754882813e-01</leafValues></_>
        <_>
          <internalNodes>
            0 -1 91 2.5759150958037935e-05</internalNodes>
          <leafValues>
            -3.1153872609138489e-01 8.8060384988784790e-01</leafValues></_>
        <_>
          <internalNodes>
            0 -1 54 1.8888502381742001e-03</internalNodes>
          <leafValues>
            3.1744882464408875e-01 -1.</leafValues></_>
        <_>
          <internalNodes>
            0 -1 59 1.5225541574181989e-05</internalNodes>
          <leafValues>
            -2.8937274217605591e-01 7.4350804090499878e-01</leafValues></_>
        <_>
          <internalNodes>
            0 -1 145 -2.3870015866123140e-04</internalNodes>
          <leafValues>
            -8.6245286464691162e-01 3.0905771255493164e-01</leafValues></_>
        <_>
          <internalNodes>
            0 -1 66 1.0210295021533966e-01</internalNodes>
          <leafValues>
            -1.7183513939380646e-01 1.</leafValues></_>
        <_>
          <internalNodes>
            0 -1 136 6.0205115005373955e-04</internalNodes>
          <leafValues>
            1.6935424506664276e-01 -1.</leafValues></_>
        <_>
          <internalNodes>
            0 -1 147 -2.2434347556554712e-05</internalNodes>
          <leafValues>
            9.7127491235733032e-01 -1.3815149664878845e-01</leafValues></_>
        <_>
          <internalNodes>
            0 -1 165 -2.3754462745273486e-05</internalNodes>
          <leafValues>
            1. -6.2899433076381683e-02</leafValues></_>
        <_>
          <internalNodes>
            0 -1 44 -2.1573412232100964e-04</internalNodes>
          <leafValues>
            -8.9938229322433472e-01 1.1072613298892975e-01</leafValues></_>
        <_>
          <internalNodes>
            0 -1 121 1.5776287764310837e-03</internalNodes>
          <leafValues>
            -7.8986421227455139e-02 8.7522500753402710e-01</leafValues></_>
        <_>
          <internalNodes>
            0 -1 134 1.9176544155925512e-03</internalNodes>
          <leafValues>
            8.0856427550315857e-02 -8.2130074501037598e-01</leafValues></_>
        <_>
          <internalNodes>
            0 -1 60 4.9857793783303350e-05</internalNodes>
          <leafValues>
            -2.4414235725998878e-02 1.</leafValues></_>
        <_>
          <internalNodes>
            0 -1 164 1.2832334032282233e-03</internalNodes>
          <leafValues>
            2.3402128368616104e-02 -1.</leafValues></_>
        <_>
          <internalNodes>
            0 -1 159 1.8116978026228026e-05</internalNodes>
          <leafValues>
            -2.4594714865088463e-02 1.</leafValues></_>
        <_>
          <internalNodes>
            0 -1 142 4.0824699681252241e-04</internalNodes>
          <leafValues>
            2.4220257997512817e-02 -1.</leafValues></_>
        <_>
          <internalNodes>
            0 -1 36 2.9914674814790487e-04</internalNodes>
          <leafValues>
            -1.1625711806118488e-02 1.</leafValues></_>
        <_>
          <internalNodes>
            0 -1 29 1.4085579896345735e-03</internalNodes>
          <leafValues>
            3.9471085183322430e-03 -1.</leafValues></_>
        <_>
          <internalNodes>
            0 -1 101 -4.9857793783303350e-05</internalNodes>
          <leafValues>
            1. -4.1597294621169567e-03</leafValues></_>
        <_>
          <internalNodes>
            0 -1 101 -2.0256612333469093e-04</internalNodes>
          <leafValues>
            -1. -2.3992662079308502e-08</leafValues></_>
        <_>
          <internalNodes>
            0 -1 39 8.2629660028032959e-05</internalNodes>
          <leafValues>
            3.9032292002036905e-16 1.</leafValues></_>
        <_>
          <internalNodes>
            0 -1 51 5.7529099285602570e-04</internalNodes>
          <leafValues>
            3.1753571238368750e-03 -1.</leafValues></_>
        <_>
          <internalNodes>
            0 -1 16 1.2393794895615429e-04</internalNodes>
          <leafValues>
            -3.1753464136272669e-03 1.</leafValues></_>
        <_>
          <internalNodes>
            0 -1 22 2.1914022509008646e-03</internalNodes>
          <leafValues>
            1.5671154251322150e-03 -1.</leafValues></_>
        <_>
          <internalNodes>
            0 -1 23 4.1312647226732224e-05</internalNodes>
          <leafValues>
            -1.5671247383579612e-03 1.</leafValues></_>
        <_>
          <internalNodes>
            0 -1 7 -6.7522043536882848e-05</internalNodes>
          <leafValues>
            -1. -1.2828921258645209e-09</leafValues></_>
        <_>
          <internalNodes>
            0 -1 5 -4.3104213546030223e-05</internalNodes>
          <leafValues>
            1. -2.4609542451798916e-03</leafValues></_>
        <_>
          <internalNodes>
            0 -1 0 -5.0071132136508822e-04</internalNodes>
          <leafValues>
            -1. 2.4609493557363749e-03</leafValues></_>
        <_>
          <internalNodes>
            0 -1 1 3.7104557850398123e-04</internalNodes>
          <leafValues>
            4.9680770608517832e-09 -1.</leafValues></_>
        <_>
          <internalNodes>
            0 -1 0 -7.5152427598368376e-05</internalNodes>
          <leafValues>
            1. -1.7577803745455592e-16</leafValues></_>
        <_>
          <internalNodes>
            0 -1 0 -5.0071132136508822e-04</internalNodes>
          <leafValues>
            -1. 1.1833525670384222e-15</leafValues></_>
        <_>
          <internalNodes>
            0 -1 0 -2.4357855727430433e-04</internalNodes>
          <leafValues>
            -1. -4.6921961860391364e-16</leafValues></_></weakClassifiers></_>
    <!-- stage 13 -->
    <_>
      <maxWeakCount>9</maxWeakCount>
      <stageThreshold>-2.2873554229736328e+00</stageThreshold>
      <weakClassifiers>
        <_>
          <internalNodes>
            0 -1 103 -7.2418706258758903e-04</internalNodes>
          <leafValues>
            1. -9.2523366212844849e-01</leafValues></_>
        <_>
          <internalNodes>
            0 -1 27 9.0523382823448628e-05</internalNodes>
          <leafValues>
            -8.3541256189346313e-01 9.7423410415649414e-01</leafValues></_>
        <_>
          <internalNodes>
            0 -1 154 -2.5119785277638584e-05</internalNodes>
          <leafValues>
            1. -4.5024353265762329e-01</leafValues></_>
        <_>
          <internalNodes>
            0 -1 131 -1.5225541574181989e-05</internalNodes>
          <leafValues>
            9.6366542577743530e-01 -8.8436499238014221e-02</leafValues></_>
        <_>
          <internalNodes>
            0 -1 146 -1.2559892638819292e-05</internalNodes>
          <leafValues>
            1. -4.4820073992013931e-02</leafValues></_>
        <_>
          <internalNodes>
            0 -1 49 -1.5119339805096388e-03</internalNodes>
          <leafValues>
            -1. 7.8901633620262146e-02</leafValues></_>
        <_>
          <internalNodes>
            0 -1 130 -6.7303044488653541e-05</internalNodes>
          <leafValues>
            1. -3.7573557347059250e-02</leafValues></_>
        <_>
          <internalNodes>
            0 -1 1 -1.5119339805096388e-03</internalNodes>
          <leafValues>
            -1. 1.5461528673768044e-02</leafValues></_>
        <_>
          <internalNodes>
            0 -1 18 -1.0910894721746445e-02</internalNodes>
          <leafValues>
            -1. 1.2322485645199777e-06</leafValues></_></weakClassifiers></_>
    <!-- stage 14 -->
    <_>
      <maxWeakCount>100</maxWeakCount>
      <stageThreshold>-2.2094202041625977e+00</stageThreshold>
      <weakClassifiers>
        <_>
          <internalNodes>
            0 -1 100 -5.9981993399560452e-03</internalNodes>
          <leafValues>
            9.1304349899291992e-01 -9.4174754619598389e-01</leafValues></_>
        <_>
          <internalNodes>
            0 -1 124 4.4868695113109425e-05</internalNodes>
          <leafValues>
            -7.7558183670043945e-01 9.4655400514602661e-01</leafValues></_>
        <_>
          <internalNodes>
            0 -1 93 -9.6545569249428809e-05</internalNodes>
          <leafValues>
            9.5189869403839111e-01 -4.3224415183067322e-01</leafValues></_>
        <_>
          <internalNodes>
            0 -1 148 -1.1120991985080764e-05</internalNodes>
          <leafValues>
            9.7313404083251953e-01 -1.7445968091487885e-01</leafValues></_>
        <_>
          <internalNodes>
            0 -1 68 -8.4642495494335890e-04</internalNodes>
          <leafValues>
            -9.3237322568893433e-01 2.2177474200725555e-01</leafValues></_>
        <_>
          <internalNodes>
            0 -1 144 1.2559892638819292e-05</internalNodes>
          <leafValues>
            -1.8651829659938812e-01 9.3348306417465210e-01</leafValues></_>
        <_>
          <internalNodes>
            0 -1 172 7.5473345350474119e-04</internalNodes>
          <leafValues>
            1.2370385974645615e-01 -8.9410203695297241e-01</leafValues></_>
        <_>
          <internalNodes>
            0 -1 67 3.8339432649081573e-05</internalNodes>
          <leafValues>
            -1.0536435246467590e-01 1.</leafValues></_>
        <_>
          <internalNodes>
            0 -1 79 1.7047816072590649e-04</internalNodes>
          <leafValues>
            6.7726850509643555e-02 -1.</leafValues></_>
        <_>
          <internalNodes>
            0 -1 43 9.9715590476989746e-04</internalNodes>
          <leafValues>
            -3.7504758685827255e-02 9.2765146493911743e-01</leafValues></_>
        <_>
          <internalNodes>
            0 -1 107 3.6228098906576633e-05</internalNodes>
          <leafValues>
            2.8660513460636139e-02 -1.</leafValues></_>
        <_>
          <internalNodes>
            0 -1 127 -1.7583848966751248e-04</internalNodes>
          <leafValues>
            1. -1.2873623520135880e-02</leafValues></_>
        <_>
          <internalNodes>
            0 -1 109 9.0217530669178814e-05</internalNodes>
          <leafValues>
            1.2271999381482601e-02 -1.</leafValues></_>
        <_>
          <internalNodes>
            0 -1 35 2.5759150958037935e-05</internalNodes>
          <leafValues>
            -4.5714317820966244e-03 1.</leafValues></_>
        <_>
          <internalNodes>
            0 -1 37 5.6826051149982959e-05</internalNodes>
          <leafValues>
            7.5364639051258564e-03 -1.</leafValues></_>
        <_>
          <internalNodes>
            0 -1 28 3.4900454920716584e-04</internalNodes>
          <leafValues>
            -2.2901940974406898e-04 1.</leafValues></_>
        <_>
          <internalNodes>
            0 -1 28 3.6087012267671525e-04</internalNodes>
          <leafValues>
            -5.4281408665701747e-05 -1.</leafValues></_>
        <_>
          <internalNodes>
            0 -1 28 3.4900454920716584e-04</internalNodes>
          <leafValues>
            5.4281405027722940e-05 1.</leafValues></_>
        <_>
          <internalNodes>
            0 -1 28 3.6087012267671525e-04</internalNodes>
          <leafValues>
            -5.4281405027722940e-05 -1.</leafValues></_>
        <_>
          <internalNodes>
            0 -1 28 3.4900454920716584e-04</internalNodes>
          <leafValues>
            5.4281405027722940e-05 1.</leafValues></_>
        <_>
          <internalNodes>
            0 -1 28 3.6087012267671525e-04</internalNodes>
          <leafValues>
            -5.4281405027722940e-05 -1.</leafValues></_>
        <_>
          <internalNodes>
            0 -1 28 3.4900454920716584e-04</internalNodes>
          <leafValues>
            5.4281405027722940e-05 1.</leafValues></_>
        <_>
          <internalNodes>
            0 -1 28 3.6087012267671525e-04</internalNodes>
          <leafValues>
            -5.4281405027722940e-05 -1.</leafValues></_>
        <_>
          <internalNodes>
            0 -1 28 3.4900454920716584e-04</internalNodes>
          <leafValues>
            5.4281405027722940e-05 1.</leafValues></_>
        <_>
          <internalNodes>
            0 -1 28 3.6087012267671525e-04</internalNodes>
          <leafValues>
            -5.4281405027722940e-05 -1.</leafValues></_>
        <_>
          <internalNodes>
            0 -1 28 3.4900454920716584e-04</internalNodes>
          <leafValues>
            5.4281405027722940e-05 1.</leafValues></_>
        <_>
          <internalNodes>
            0 -1 28 3.6087012267671525e-04</internalNodes>
          <leafValues>
            -5.4281405027722940e-05 -1.</leafValues></_>
        <_>
          <internalNodes>
            0 -1 28 3.4900454920716584e-04</internalNodes>
          <leafValues>
            5.4281405027722940e-05 1.</leafValues></_>
        <_>
          <internalNodes>
            0 -1 28 3.6087012267671525e-04</internalNodes>
          <leafValues>
            -5.4281405027722940e-05 -1.</leafValues></_>
        <_>
          <internalNodes>
            0 -1 28 3.4900454920716584e-04</internalNodes>
          <leafValues>
            5.4281405027722940e-05 1.</leafValues></_>
        <_>
          <internalNodes>
            0 -1 28 3.6087012267671525e-04</internalNodes>
          <leafValues>
            -5.4281405027722940e-05 -1.</leafValues></_>
        <_>
          <internalNodes>
            0 -1 28 3.4900454920716584e-04</internalNodes>
          <leafValues>
            5.4281405027722940e-05 1.</leafValues></_>
        <_>
          <internalNodes>
            0 -1 28 3.6087012267671525e-04</internalNodes>
          <leafValues>
            -5.4281405027722940e-05 -1.</leafValues></_>
        <_>
          <internalNodes>
            0 -1 28 3.4900454920716584e-04</internalNodes>
          <leafValues>
            5.4281405027722940e-05 1.</leafValues></_>
        <_>
          <internalNodes>
            0 -1 28 3.6087012267671525e-04</internalNodes>
          <leafValues>
            -5.4281405027722940e-05 -1.</leafValues></_>
        <_>
          <internalNodes>
            0 -1 28 3.4900454920716584e-04</internalNodes>
          <leafValues>
            5.4281405027722940e-05 1.</leafValues></_>
        <_>
          <internalNodes>
            0 -1 28 3.6087012267671525e-04</internalNodes>
          <leafValues>
            -5.4281405027722940e-05 -1.</leafValues></_>
        <_>
          <internalNodes>
            0 -1 28 3.4900454920716584e-04</internalNodes>
          <leafValues>
            5.4281405027722940e-05 1.</leafValues></_>
        <_>
          <internalNodes>
            0 -1 28 3.6087012267671525e-04</internalNodes>
          <leafValues>
            -5.4281405027722940e-05 -1.</leafValues></_>
        <_>
          <internalNodes>
            0 -1 28 3.4900454920716584e-04</internalNodes>
          <leafValues>
            5.4281405027722940e-05 1.</leafValues></_>
        <_>
          <internalNodes>
            0 -1 28 3.6087012267671525e-04</internalNodes>
          <leafValues>
            -5.4281405027722940e-05 -1.</leafValues></_>
        <_>
          <internalNodes>
            0 -1 28 3.4900454920716584e-04</internalNodes>
          <leafValues>
            5.4281405027722940e-05 1.</leafValues></_>
        <_>
          <internalNodes>
            0 -1 28 3.6087012267671525e-04</internalNodes>
          <leafValues>
            -5.4281405027722940e-05 -1.</leafValues></_>
        <_>
          <internalNodes>
            0 -1 28 3.4900454920716584e-04</internalNodes>
          <leafValues>
            5.4281405027722940e-05 1.</leafValues></_>
        <_>
          <internalNodes>
            0 -1 28 3.6087012267671525e-04</internalNodes>
          <leafValues>
            -5.4281405027722940e-05 -1.</leafValues></_>
        <_>
          <internalNodes>
            0 -1 28 3.4900454920716584e-04</internalNodes>
          <leafValues>
            5.4281405027722940e-05 1.</leafValues></_>
        <_>
          <internalNodes>
            0 -1 28 3.6087012267671525e-04</internalNodes>
          <leafValues>
            -5.4281405027722940e-05 -1.</leafValues></_>
        <_>
          <internalNodes>
            0 -1 28 3.4900454920716584e-04</internalNodes>
          <leafValues>
            5.4281405027722940e-05 1.</leafValues></_>
        <_>
          <internalNodes>
            0 -1 28 3.6087012267671525e-04</internalNodes>
          <leafValues>
            -5.4281405027722940e-05 -1.</leafValues></_>
        <_>
          <internalNodes>
            0 -1 28 3.4900454920716584e-04</internalNodes>
          <leafValues>
            5.4281405027722940e-05 1.</leafValues></_>
        <_>
          <internalNodes>
            0 -1 28 3.6087012267671525e-04</internalNodes>
          <leafValues>
            -5.4281405027722940e-05 -1.</leafValues></_>
        <_>
          <internalNodes>
            0 -1 28 3.4900454920716584e-04</internalNodes>
          <leafValues>
            5.4281405027722940e-05 1.</leafValues></_>
        <_>
          <internalNodes>
            0 -1 28 3.6087012267671525e-04</internalNodes>
          <leafValues>
            -5.4281405027722940e-05 -1.</leafValues></_>
        <_>
          <internalNodes>
            0 -1 28 3.4900454920716584e-04</internalNodes>
          <leafValues>
            5.4281405027722940e-05 1.</leafValues></_>
        <_>
          <internalNodes>
            0 -1 28 3.6087012267671525e-04</internalNodes>
          <leafValues>
            -5.4281405027722940e-05 -1.</leafValues></_>
        <_>
          <internalNodes>
            0 -1 28 3.4900454920716584e-04</internalNodes>
          <leafValues>
            5.4281405027722940e-05 1.</leafValues></_>
        <_>
          <internalNodes>
            0 -1 28 3.6087012267671525e-04</internalNodes>
          <leafValues>
            -5.4281405027722940e-05 -1.</leafValues></_>
        <_>
          <internalNodes>
            0 -1 28 3.4900454920716584e-04</internalNodes>
          <leafValues>
            5.4281405027722940e-05 1.</leafValues></_>
        <_>
          <internalNodes>
            0 -1 28 3.6087012267671525e-04</internalNodes>
          <leafValues>
            -5.4281405027722940e-05 -1.</leafValues></_>
        <_>
          <internalNodes>
            0 -1 28 3.4900454920716584e-04</internalNodes>
          <leafValues>
            5.4281405027722940e-05 1.</leafValues></_>
        <_>
          <internalNodes>
            0 -1 28 3.6087012267671525e-04</internalNodes>
          <leafValues>
            -5.4281405027722940e-05 -1.</leafValues></_>
        <_>
          <internalNodes>
            0 -1 28 3.4900454920716584e-04</internalNodes>
          <leafValues>
            5.4281405027722940e-05 1.</leafValues></_>
        <_>
          <internalNodes>
            0 -1 28 3.6087012267671525e-04</internalNodes>
          <leafValues>
            -5.4281405027722940e-05 -1.</leafValues></_>
        <_>
          <internalNodes>
            0 -1 28 3.4900454920716584e-04</internalNodes>
          <leafValues>
            5.4281405027722940e-05 1.</leafValues></_>
        <_>
          <internalNodes>
            0 -1 28 3.6087012267671525e-04</internalNodes>
          <leafValues>
            -5.4281405027722940e-05 -1.</leafValues></_>
        <_>
          <internalNodes>
            0 -1 28 3.4900454920716584e-04</internalNodes>
          <leafValues>
            5.4281405027722940e-05 1.</leafValues></_>
        <_>
          <internalNodes>
            0 -1 28 3.6087012267671525e-04</internalNodes>
          <leafValues>
            -5.4281405027722940e-05 -1.</leafValues></_>
        <_>
          <internalNodes>
            0 -1 28 3.4900454920716584e-04</internalNodes>
          <leafValues>
            5.4281405027722940e-05 1.</leafValues></_>
        <_>
          <internalNodes>
            0 -1 28 3.6087012267671525e-04</internalNodes>
          <leafValues>
            -5.4281405027722940e-05 -1.</leafValues></_>
        <_>
          <internalNodes>
            0 -1 28 3.4900454920716584e-04</internalNodes>
          <leafValues>
            5.4281405027722940e-05 1.</leafValues></_>
        <_>
          <internalNodes>
            0 -1 28 3.6087012267671525e-04</internalNodes>
          <leafValues>
            -5.4281405027722940e-05 -1.</leafValues></_>
        <_>
          <internalNodes>
            0 -1 28 3.4900454920716584e-04</internalNodes>
          <leafValues>
            5.4281405027722940e-05 1.</leafValues></_>
        <_>
          <internalNodes>
            0 -1 28 3.6087012267671525e-04</internalNodes>
          <leafValues>
            -5.4281405027722940e-05 -1.</leafValues></_>
        <_>
          <internalNodes>
            0 -1 28 3.4900454920716584e-04</internalNodes>
          <leafValues>
            5.4281405027722940e-05 1.</leafValues></_>
        <_>
          <internalNodes>
            0 -1 28 3.6087012267671525e-04</internalNodes>
          <leafValues>
            -5.4281405027722940e-05 -1.</leafValues></_>
        <_>
          <internalNodes>
            0 -1 28 3.4900454920716584e-04</internalNodes>
          <leafValues>
            5.4281405027722940e-05 1.</leafValues></_>
        <_>
          <internalNodes>
            0 -1 28 3.6087012267671525e-04</internalNodes>
          <leafValues>
            -5.4281405027722940e-05 -1.</leafValues></_>
        <_>
          <internalNodes>
            0 -1 28 3.4900454920716584e-04</internalNodes>
          <leafValues>
            5.4281405027722940e-05 1.</leafValues></_>
        <_>
          <internalNodes>
            0 -1 28 3.6087012267671525e-04</internalNodes>
          <leafValues>
            -5.4281405027722940e-05 -1.</leafValues></_>
        <_>
          <internalNodes>
            0 -1 28 3.4900454920716584e-04</internalNodes>
          <leafValues>
            5.4281405027722940e-05 1.</leafValues></_>
        <_>
          <internalNodes>
            0 -1 28 3.6087012267671525e-04</internalNodes>
          <leafValues>
            -5.4281405027722940e-05 -1.</leafValues></_>
        <_>
          <internalNodes>
            0 -1 28 3.4900454920716584e-04</internalNodes>
          <leafValues>
            5.4281405027722940e-05 1.</leafValues></_>
        <_>
          <internalNodes>
            0 -1 28 3.6087012267671525e-04</internalNodes>
          <leafValues>
            -5.4281405027722940e-05 -1.</leafValues></_>
        <_>
          <internalNodes>
            0 -1 28 3.4900454920716584e-04</internalNodes>
          <leafValues>
            5.4281405027722940e-05 1.</leafValues></_>
        <_>
          <internalNodes>
            0 -1 28 3.6087012267671525e-04</internalNodes>
          <leafValues>
            -5.4281405027722940e-05 -1.</leafValues></_>
        <_>
          <internalNodes>
            0 -1 28 3.4900454920716584e-04</internalNodes>
          <leafValues>
            5.4281405027722940e-05 1.</leafValues></_>
        <_>
          <internalNodes>
            0 -1 28 3.6087012267671525e-04</internalNodes>
          <leafValues>
            -5.4281405027722940e-05 -1.</leafValues></_>
        <_>
          <internalNodes>
            0 -1 28 3.4900454920716584e-04</internalNodes>
          <leafValues>
            5.4281405027722940e-05 1.</leafValues></_>
        <_>
          <internalNodes>
            0 -1 28 3.6087012267671525e-04</internalNodes>
          <leafValues>
            -5.4281405027722940e-05 -1.</leafValues></_>
        <_>
          <internalNodes>
            0 -1 28 3.4900454920716584e-04</internalNodes>
          <leafValues>
            5.4281405027722940e-05 1.</leafValues></_>
        <_>
          <internalNodes>
            0 -1 28 3.6087012267671525e-04</internalNodes>
          <leafValues>
            -5.4281405027722940e-05 -1.</leafValues></_>
        <_>
          <internalNodes>
            0 -1 28 3.4900454920716584e-04</internalNodes>
          <leafValues>
            5.4281405027722940e-05 1.</leafValues></_>
        <_>
          <internalNodes>
            0 -1 28 3.6087012267671525e-04</internalNodes>
          <leafValues>
            -5.4281405027722940e-05 -1.</leafValues></_>
        <_>
          <internalNodes>
            0 -1 28 3.4900454920716584e-04</internalNodes>
          <leafValues>
            5.4281405027722940e-05 1.</leafValues></_>
        <_>
          <internalNodes>
            0 -1 28 3.6087012267671525e-04</internalNodes>
          <leafValues>
            -5.4281405027722940e-05 -1.</leafValues></_>
        <_>
          <internalNodes>
            0 -1 28 3.4900454920716584e-04</internalNodes>
          <leafValues>
            5.4281405027722940e-05 1.</leafValues></_>
        <_>
          <internalNodes>
            0 -1 28 3.6087012267671525e-04</internalNodes>
          <leafValues>
            -5.4281405027722940e-05 -1.</leafValues></_>
        <_>
          <internalNodes>
            0 -1 28 3.4900454920716584e-04</internalNodes>
          <leafValues>
            5.4281405027722940e-05 1.</leafValues></_>
        <_>
          <internalNodes>
            0 -1 28 3.6087012267671525e-04</internalNodes>
          <leafValues>
            -5.4281405027722940e-05 -1.</leafValues></_>
        <_>
          <internalNodes>
            0 -1 28 3.4900454920716584e-04</internalNodes>
          <leafValues>
            5.4281405027722940e-05 1.</leafValues></_></weakClassifiers></_>
    <!-- stage 15 -->
    <_>
      <maxWeakCount>14</maxWeakCount>
      <stageThreshold>-2.2821741104125977e+00</stageThreshold>
      <weakClassifiers>
        <_>
          <internalNodes>
            0 -1 135 4.5396107452688739e-05</internalNodes>
          <leafValues>
            -9.2523366212844849e-01 1.</leafValues></_>
        <_>
          <internalNodes>
            0 -1 140 -5.0239570555277169e-05</internalNodes>
          <leafValues>
            9.4971710443496704e-01 -8.4949994087219238e-01</leafValues></_>
        <_>
          <internalNodes>
            0 -1 71 4.5396107452688739e-05</internalNodes>
          <leafValues>
            -4.9026751518249512e-01 9.0218305587768555e-01</leafValues></_>
        <_>
          <internalNodes>
            0 -1 139 4.4868695113109425e-05</internalNodes>
          <leafValues>
            -1.0136152803897858e-01 1.</leafValues></_>
        <_>
          <internalNodes>
            0 -1 38 1.3910773396492004e-01</internalNodes>
          <leafValues>
            1.5565833449363708e-01 -1.</leafValues></_>
        <_>
          <internalNodes>
            0 -1 41 2.2434347556554712e-05</internalNodes>
          <leafValues>
            -1.1315404623746872e-01 1.</leafValues></_>
        <_>
          <internalNodes>
            0 -1 30 1.1322939768433571e-02</internalNodes>
          <leafValues>
            5.6575216352939606e-02 -1.</leafValues></_>
        <_>
          <internalNodes>
            0 -1 88 4.9857793783303350e-05</internalNodes>
          <leafValues>
            -2.2896023467183113e-02 1.</leafValues></_>
        <_>
          <internalNodes>
            0 -1 30 1.6834877431392670e-02</internalNodes>
          <leafValues>
            1.4367695897817612e-02 -1.</leafValues></_>
        <_>
          <internalNodes>
            0 -1 40 1.0559139773249626e-03</internalNodes>
          <leafValues>
            -1.1543532833456993e-02 1.</leafValues></_>
        <_>
          <internalNodes>
            0 -1 21 2.0634932443499565e-03</internalNodes>
          <leafValues>
            7.6310844160616398e-03 -1.</leafValues></_>
        <_>
          <internalNodes>
            0 -1 14 -2.0656323613366112e-05</internalNodes>
          <leafValues>
            1. -2.4501986335963011e-03</leafValues></_>
        <_>
          <internalNodes>
            0 -1 13 7.8245770419016480e-04</internalNodes>
          <leafValues>
            4.8508057370781898e-03 -1.</leafValues></_>
        <_>
          <internalNodes>
            0 -1 12 4.2285366362193599e-05</internalNodes>
          <leafValues>
            -4.8507726751267910e-03 1.</leafValues></_></weakClassifiers></_>
    <!-- stage 16 -->
    <_>
      <maxWeakCount>7</maxWeakCount>
      <stageThreshold>-1.3000489473342896e+00</stageThreshold>
      <weakClassifiers>
        <_>
          <internalNodes>
            0 -1 95 4.0312014520168304e-02</internalNodes>
          <leafValues>
            -7.8723406791687012e-01 5.1282054185867310e-01</leafValues></_>
        <_>
          <internalNodes>
            0 -1 119 1.1762382835149765e-01</internalNodes>
          <leafValues>
            -4.3279376626014709e-01 9.1335129737854004e-01</leafValues></_>
        <_>
          <internalNodes>
            0 -1 74 2.6933834305964410e-05</internalNodes>
          <leafValues>
            4.1666910052299500e-01 -8.3936160802841187e-01</leafValues></_>
        <_>
          <internalNodes>
            0 -1 105 3.3822193741798401e-02</internalNodes>
          <leafValues>
            -4.5425790548324585e-01 7.9938751459121704e-01</leafValues></_>
        <_>
          <internalNodes>
            0 -1 180 4.1137398511637002e-05</internalNodes>
          <leafValues>
            3.1624329090118408e-01 -1.</leafValues></_>
        <_>
          <internalNodes>
            0 -1 125 -2.2434347556554712e-05</internalNodes>
          <leafValues>
            5.9344041347503662e-01 -5.8102381229400635e-01</leafValues></_>
        <_>
          <internalNodes>
            0 -1 69 1.5790157485753298e-03</internalNodes>
          <leafValues>
            2.2234815359115601e-01 -1.</leafValues></_></weakClassifiers></_>
    <!-- stage 17 -->
    <_>
      <maxWeakCount>100</maxWeakCount>
      <stageThreshold>-2.1637792587280273e+00</stageThreshold>
      <weakClassifiers>
        <_>
          <internalNodes>
            0 -1 97 -4.5339507050812244e-04</internalNodes>
          <leafValues>
            6.9230771064758301e-01 -9.3617022037506104e-01</leafValues></_>
        <_>
          <internalNodes>
            0 -1 138 1.5225541574181989e-05</internalNodes>
          <leafValues>
            -6.1685991287231445e-01 7.2739523649215698e-01</leafValues></_>
        <_>
          <internalNodes>
            0 -1 55 -5.9338104620110244e-05</internalNodes>
          <leafValues>
            8.2294487953186035e-01 -4.5190393924713135e-01</leafValues></_>
        <_>
          <internalNodes>
            0 -1 176 1.0605233001115266e-05</internalNodes>
          <leafValues>
            2.9710730910301208e-01 -1.</leafValues></_>
        <_>
          <internalNodes>
            0 -1 123 -2.3262458853423595e-03</internalNodes>
          <leafValues>
            8.8386356830596924e-01 -3.7838891148567200e-01</leafValues></_>
        <_>
          <internalNodes>
            0 -1 94 -1.9889820832759142e-03</internalNodes>
          <leafValues>
            9.6912437677383423e-01 -1.7141458392143250e-01</leafValues></_>
        <_>
          <internalNodes>
            0 -1 50 -7.8363427746808156e-06</internalNodes>
          <leafValues>
            -1. 2.8340467810630798e-01</leafValues></_>
        <_>
          <internalNodes>
            0 -1 65 1.9467803649604321e-03</internalNodes>
          <leafValues>
            -2.7897456288337708e-01 6.8542140722274780e-01</leafValues></_>
        <_>
          <internalNodes>
            0 -1 174 3.0109637009445578e-05</internalNodes>
          <leafValues>
            1.7969396710395813e-01 -9.7353649139404297e-01</leafValues></_>
        <_>
          <internalNodes>
            0 -1 104 -5.7997257681563497e-04</internalNodes>
          <leafValues>
            -1. 8.4408238530158997e-02</leafValues></_>
        <_>
          <internalNodes>
            0 -1 141 1.7770477279555053e-04</internalNodes>
          <leafValues>
            -1.8434697389602661e-01 8.3397889137268066e-01</leafValues></_>
        <_>
          <internalNodes>
            0 -1 158 -1.5665084356442094e-03</internalNodes>
          <leafValues>
            9.3496251106262207e-01 -5.0350017845630646e-02</leafValues></_>
        <_>
          <internalNodes>
            0 -1 163 -5.2217059419490397e-05</internalNodes>
          <leafValues>
            -9.3534350395202637e-01 1.0227902233600616e-01</leafValues></_>
        <_>
          <internalNodes>
            0 -1 83 -4.4868695113109425e-05</internalNodes>
          <leafValues>
            8.6137610673904419e-01 -6.3374780118465424e-02</leafValues></_>
        <_>
          <internalNodes>
            0 -1 113 5.0030233978759497e-05</internalNodes>
          <leafValues>
            6.0780182480812073e-02 -9.3329131603240967e-01</leafValues></_>
        <_>
          <internalNodes>
            0 -1 161 -1.9169716324540786e-05</internalNodes>
          <leafValues>
            9.4691729545593262e-01 -4.7823552042245865e-02</leafValues></_>
        <_>
          <internalNodes>
            0 -1 169 -1.7484517229604535e-05</internalNodes>
          <leafValues>
            -1. 2.4059228599071503e-02</leafValues></_>
        <_>
          <internalNodes>
            0 -1 76 -4.2161485180258751e-04</internalNodes>
          <leafValues>
            1. -3.1566008925437927e-02</leafValues></_>
        <_>
          <internalNodes>
            0 -1 84 5.3581356769427657e-04</internalNodes>
          <leafValues>
            2.7751959860324860e-02 -1.</leafValues></_>
        <_>
          <internalNodes>
            0 -1 122 -2.5119785277638584e-05</internalNodes>
          <leafValues>
            1. -9.8968474194407463e-03</leafValues></_>
        <_>
          <internalNodes>
            0 -1 19 4.3263455154374242e-04</internalNodes>
          <leafValues>
            4.8747756518423557e-03 -1.</leafValues></_>
        <_>
          <internalNodes>
            0 -1 14 -4.4868695113109425e-05</internalNodes>
          <leafValues>
            1. -7.0681371726095676e-03</leafValues></_>
        <_>
          <internalNodes>
            0 -1 14 -8.0616140621714294e-05</internalNodes>
          <leafValues>
            -1. 5.0349910743534565e-03</leafValues></_>
        <_>
          <internalNodes>
            0 -1 14 -4.4868695113109425e-05</internalNodes>
          <leafValues>
            1. -5.0350660458207130e-03</leafValues></_>
        <_>
          <internalNodes>
            0 -1 14 -8.0616140621714294e-05</internalNodes>
          <leafValues>
            -1. 5.0350660458207130e-03</leafValues></_>
        <_>
          <internalNodes>
            0 -1 14 -4.4868695113109425e-05</internalNodes>
          <leafValues>
            1. -5.0350660458207130e-03</leafValues></_>
        <_>
          <internalNodes>
            0 -1 14 -8.0616140621714294e-05</internalNodes>
          <leafValues>
            -1. 5.0350660458207130e-03</leafValues></_>
        <_>
          <internalNodes>
            0 -1 14 -4.4868695113109425e-05</internalNodes>
          <leafValues>
            1. -5.0350660458207130e-03</leafValues></_>
        <_>
          <internalNodes>
            0 -1 14 -8.0616140621714294e-05</internalNodes>
          <leafValues>
            -1. 5.0350660458207130e-03</leafValues></_>
        <_>
          <internalNodes>
            0 -1 14 -4.4868695113109425e-05</internalNodes>
          <leafValues>
            1. -5.0350660458207130e-03</leafValues></_>
        <_>
          <internalNodes>
            0 -1 14 -8.0616140621714294e-05</internalNodes>
          <leafValues>
            -1. 5.0350660458207130e-03</leafValues></_>
        <_>
          <internalNodes>
            0 -1 14 -4.4868695113109425e-05</internalNodes>
          <leafValues>
            1. -5.0350660458207130e-03</leafValues></_>
        <_>
          <internalNodes>
            0 -1 14 -8.0616140621714294e-05</internalNodes>
          <leafValues>
            -1. 5.0350660458207130e-03</leafValues></_>
        <_>
          <internalNodes>
            0 -1 14 -4.4868695113109425e-05</internalNodes>
          <leafValues>
            1. -5.0350660458207130e-03</leafValues></_>
        <_>
          <internalNodes>
            0 -1 14 -8.0616140621714294e-05</internalNodes>
          <leafValues>
            -1. 5.0350660458207130e-03</leafValues></_>
        <_>
          <internalNodes>
            0 -1 14 -4.4868695113109425e-05</internalNodes>
          <leafValues>
            1. -5.0350660458207130e-03</leafValues></_>
        <_>
          <internalNodes>
            0 -1 14 -8.0616140621714294e-05</internalNodes>
          <leafValues>
            -1. 5.0350660458207130e-03</leafValues></_>
        <_>
          <internalNodes>
            0 -1 14 -4.4868695113109425e-05</internalNodes>
          <leafValues>
            1. -5.0350660458207130e-03</leafValues></_>
        <_>
          <internalNodes>
            0 -1 14 -8.0616140621714294e-05</internalNodes>
          <leafValues>
            -1. 5.0350660458207130e-03</leafValues></_>
        <_>
          <internalNodes>
            0 -1 14 -4.4868695113109425e-05</internalNodes>
          <leafValues>
            1. -5.0350660458207130e-03</leafValues></_>
        <_>
          <internalNodes>
            0 -1 14 -8.0616140621714294e-05</internalNodes>
          <leafValues>
            -1. 5.0350660458207130e-03</leafValues></_>
        <_>
          <internalNodes>
            0 -1 14 -4.4868695113109425e-05</internalNodes>
          <leafValues>
            1. -5.0350660458207130e-03</leafValues></_>
        <_>
          <internalNodes>
            0 -1 14 -8.0616140621714294e-05</internalNodes>
          <leafValues>
            -1. 5.0350660458207130e-03</leafValues></_>
        <_>
          <internalNodes>
            0 -1 14 -4.4868695113109425e-05</internalNodes>
          <leafValues>
            1. -5.0350660458207130e-03</leafValues></_>
        <_>
          <internalNodes>
            0 -1 14 -8.0616140621714294e-05</internalNodes>
          <leafValues>
            -1. 5.0350660458207130e-03</leafValues></_>
        <_>
          <internalNodes>
            0 -1 14 -4.4868695113109425e-05</internalNodes>
          <leafValues>
            1. -5.0350660458207130e-03</leafValues></_>
        <_>
          <internalNodes>
            0 -1 14 -8.0616140621714294e-05</internalNodes>
          <leafValues>
            -1. 5.0350660458207130e-03</leafValues></_>
        <_>
          <internalNodes>
            0 -1 14 -4.4868695113109425e-05</internalNodes>
          <leafValues>
            1. -5.0350660458207130e-03</leafValues></_>
        <_>
          <internalNodes>
            0 -1 14 -8.0616140621714294e-05</internalNodes>
          <leafValues>
            -1. 5.0350660458207130e-03</leafValues></_>
        <_>
          <internalNodes>
            0 -1 14 -4.4868695113109425e-05</internalNodes>
          <leafValues>
            1. -5.0350660458207130e-03</leafValues></_>
        <_>
          <internalNodes>
            0 -1 14 -8.0616140621714294e-05</internalNodes>
          <leafValues>
            -1. 5.0350660458207130e-03</leafValues></_>
        <_>
          <internalNodes>
            0 -1 14 -4.4868695113109425e-05</internalNodes>
          <leafValues>
            1. -5.0350660458207130e-03</leafValues></_>
        <_>
          <internalNodes>
            0 -1 14 -8.0616140621714294e-05</internalNodes>
          <leafValues>
            -1. 5.0350660458207130e-03</leafValues></_>
        <_>
          <internalNodes>
            0 -1 14 -4.4868695113109425e-05</internalNodes>
          <leafValues>
            1. -5.0350660458207130e-03</leafValues></_>
        <_>
          <internalNodes>
            0 -1 14 -8.0616140621714294e-05</internalNodes>
          <leafValues>
            -1. 5.0350660458207130e-03</leafValues></_>
        <_>
          <internalNodes>
            0 -1 14 -4.4868695113109425e-05</internalNodes>
          <leafValues>
            1. -5.0350660458207130e-03</leafValues></_>
        <_>
          <internalNodes>
            0 -1 14 -8.0616140621714294e-05</internalNodes>
          <leafValues>
            -1. 5.0350660458207130e-03</leafValues></_>
        <_>
          <internalNodes>
            0 -1 14 -4.4868695113109425e-05</internalNodes>
          <leafValues>
            1. -5.0350660458207130e-03</leafValues></_>
        <_>
          <internalNodes>
            0 -1 14 -8.0616140621714294e-05</internalNodes>
          <leafValues>
            -1. 5.0350660458207130e-03</leafValues></_>
        <_>
          <internalNodes>
            0 -1 14 -4.4868695113109425e-05</internalNodes>
          <leafValues>
            1. -5.0350660458207130e-03</leafValues></_>
        <_>
          <internalNodes>
            0 -1 14 -8.0616140621714294e-05</internalNodes>
          <leafValues>
            -1. 5.0350660458207130e-03</leafValues></_>
        <_>
          <internalNodes>
            0 -1 14 -4.4868695113109425e-05</internalNodes>
          <leafValues>
            1. -5.0350660458207130e-03</leafValues></_>
        <_>
          <internalNodes>
            0 -1 14 -8.0616140621714294e-05</internalNodes>
          <leafValues>
            -1. 5.0350660458207130e-03</leafValues></_>
        <_>
          <internalNodes>
            0 -1 14 -4.4868695113109425e-05</internalNodes>
          <leafValues>
            1. -5.0350660458207130e-03</leafValues></_>
        <_>
          <internalNodes>
            0 -1 14 -8.0616140621714294e-05</internalNodes>
          <leafValues>
            -1. 5.0350660458207130e-03</leafValues></_>
        <_>
          <internalNodes>
            0 -1 14 -4.4868695113109425e-05</internalNodes>
          <leafValues>
            1. -5.0350660458207130e-03</leafValues></_>
        <_>
          <internalNodes>
            0 -1 14 -8.0616140621714294e-05</internalNodes>
          <leafValues>
            -1. 5.0350660458207130e-03</leafValues></_>
        <_>
          <internalNodes>
            0 -1 14 -4.4868695113109425e-05</internalNodes>
          <leafValues>
            1. -5.0350660458207130e-03</leafValues></_>
        <_>
          <internalNodes>
            0 -1 14 -8.0616140621714294e-05</internalNodes>
          <leafValues>
            -1. 5.0350660458207130e-03</leafValues></_>
        <_>
          <internalNodes>
            0 -1 14 -4.4868695113109425e-05</internalNodes>
          <leafValues>
            1. -5.0350660458207130e-03</leafValues></_>
        <_>
          <internalNodes>
            0 -1 14 -8.0616140621714294e-05</internalNodes>
          <leafValues>
            -1. 5.0350660458207130e-03</leafValues></_>
        <_>
          <internalNodes>
            0 -1 14 -4.4868695113109425e-05</internalNodes>
          <leafValues>
            1. -5.0350660458207130e-03</leafValues></_>
        <_>
          <internalNodes>
            0 -1 14 -8.0616140621714294e-05</internalNodes>
          <leafValues>
            -1. 5.0350660458207130e-03</leafValues></_>
        <_>
          <internalNodes>
            0 -1 14 -4.4868695113109425e-05</internalNodes>
          <leafValues>
            1. -5.0350660458207130e-03</leafValues></_>
        <_>
          <internalNodes>
            0 -1 14 -8.0616140621714294e-05</internalNodes>
          <leafValues>
            -1. 5.0350660458207130e-03</leafValues></_>
        <_>
          <internalNodes>
            0 -1 14 -4.4868695113109425e-05</internalNodes>
          <leafValues>
            1. -5.0350660458207130e-03</leafValues></_>
        <_>
          <internalNodes>
            0 -1 14 -8.0616140621714294e-05</internalNodes>
          <leafValues>
            -1. 5.0350660458207130e-03</leafValues></_>
        <_>
          <internalNodes>
            0 -1 14 -4.4868695113109425e-05</internalNodes>
          <leafValues>
            1. -5.0350660458207130e-03</leafValues></_>
        <_>
          <internalNodes>
            0 -1 14 -8.0616140621714294e-05</internalNodes>
          <leafValues>
            -1. 5.0350660458207130e-03</leafValues></_>
        <_>
          <internalNodes>
            0 -1 14 -4.4868695113109425e-05</internalNodes>
          <leafValues>
            1. -5.0350660458207130e-03</leafValues></_>
        <_>
          <internalNodes>
            0 -1 14 -8.0616140621714294e-05</internalNodes>
          <leafValues>
            -1. 5.0350660458207130e-03</leafValues></_>
        <_>
          <internalNodes>
            0 -1 14 -4.4868695113109425e-05</internalNodes>
          <leafValues>
            1. -5.0350660458207130e-03</leafValues></_>
        <_>
          <internalNodes>
            0 -1 14 -8.0616140621714294e-05</internalNodes>
          <leafValues>
            -1. 5.0350660458207130e-03</leafValues></_>
        <_>
          <internalNodes>
            0 -1 14 -4.4868695113109425e-05</internalNodes>
          <leafValues>
            1. -5.0350660458207130e-03</leafValues></_>
        <_>
          <internalNodes>
            0 -1 14 -8.0616140621714294e-05</internalNodes>
          <leafValues>
            -1. 5.0350660458207130e-03</leafValues></_>
        <_>
          <internalNodes>
            0 -1 14 -4.4868695113109425e-05</internalNodes>
          <leafValues>
            1. -5.0350660458207130e-03</leafValues></_>
        <_>
          <internalNodes>
            0 -1 14 -8.0616140621714294e-05</internalNodes>
          <leafValues>
            -1. 5.0350660458207130e-03</leafValues></_>
        <_>
          <internalNodes>
            0 -1 14 -4.4868695113109425e-05</internalNodes>
          <leafValues>
            1. -5.0350660458207130e-03</leafValues></_>
        <_>
          <internalNodes>
            0 -1 14 -8.0616140621714294e-05</internalNodes>
          <leafValues>
            -1. 5.0350660458207130e-03</leafValues></_>
        <_>
          <internalNodes>
            0 -1 14 -4.4868695113109425e-05</internalNodes>
          <leafValues>
            1. -5.0350660458207130e-03</leafValues></_>
        <_>
          <internalNodes>
            0 -1 14 -8.0616140621714294e-05</internalNodes>
          <leafValues>
            -1. 5.0350660458207130e-03</leafValues></_>
        <_>
          <internalNodes>
            0 -1 14 -4.4868695113109425e-05</internalNodes>
          <leafValues>
            1. -5.0350660458207130e-03</leafValues></_>
        <_>
          <internalNodes>
            0 -1 14 -8.0616140621714294e-05</internalNodes>
          <leafValues>
            -1. 5.0350660458207130e-03</leafValues></_>
        <_>
          <internalNodes>
            0 -1 14 -4.4868695113109425e-05</internalNodes>
          <leafValues>
            1. -5.0350660458207130e-03</leafValues></_>
        <_>
          <internalNodes>
            0 -1 14 -8.0616140621714294e-05</internalNodes>
          <leafValues>
            -1. 5.0350660458207130e-03</leafValues></_>
        <_>
          <internalNodes>
            0 -1 14 -4.4868695113109425e-05</internalNodes>
          <leafValues>
            1. -5.0350660458207130e-03</leafValues></_>
        <_>
          <internalNodes>
            0 -1 14 -8.0616140621714294e-05</internalNodes>
          <leafValues>
            -1. 5.0350660458207130e-03</leafValues></_>
        <_>
          <internalNodes>
            0 -1 14 -4.4868695113109425e-05</internalNodes>
          <leafValues>
            1. -5.0350660458207130e-03</leafValues></_>
        <_>
          <internalNodes>
            0 -1 14 -8.0616140621714294e-05</internalNodes>
          <leafValues>
            -1. 5.0350660458207130e-03</leafValues></_>
        <_>
          <internalNodes>
            0 -1 14 -4.4868695113109425e-05</internalNodes>
          <leafValues>
            1. -5.0350660458207130e-03</leafValues></_></weakClassifiers></_>
    <!-- stage 18 -->
    <_>
      <maxWeakCount>100</maxWeakCount>
      <stageThreshold>-2.0871937274932861e+00</stageThreshold>
      <weakClassifiers>
        <_>
          <internalNodes>
            0 -1 58 1.5132035514398012e-05</internalNodes>
          <leafValues>
            -8.9999997615814209e-01 7.7777779102325439e-01</leafValues></_>
        <_>
          <internalNodes>
            0 -1 82 1.8788106899592094e-05</internalNodes>
          <leafValues>
            -7.3153054714202881e-01 7.5923347473144531e-01</leafValues></_>
        <_>
          <internalNodes>
            0 -1 157 2.3844164388719946e-05</internalNodes>
          <leafValues>
            -4.2813822627067566e-01 9.5891493558883667e-01</leafValues></_>
        <_>
          <internalNodes>
            0 -1 56 1.6832062974572182e-03</internalNodes>
          <leafValues>
            3.7944826483726501e-01 -9.4067978858947754e-01</leafValues></_>
        <_>
          <internalNodes>
            0 -1 89 -5.6571334600448608e-02</internalNodes>
          <leafValues>
            1. -3.7815478444099426e-01</leafValues></_>
        <_>
          <internalNodes>
            0 -1 85 1.1959449329879135e-04</internalNodes>
          <leafValues>
            -2.2399649024009705e-01 8.5438454151153564e-01</leafValues></_>
        <_>
          <internalNodes>
            0 -1 33 -2.3576505554956384e-05</internalNodes>
          <leafValues>
            -9.3243837356567383e-01 2.8952893614768982e-01</leafValues></_>
        <_>
          <internalNodes>
            0 -1 129 -2.4745185510255396e-04</internalNodes>
          <leafValues>
            9.1153120994567871e-01 -1.7129737138748169e-01</leafValues></_>
        <_>
          <internalNodes>
            0 -1 57 2.5968290865421295e-03</internalNodes>
          <leafValues>
            1.2697140872478485e-01 -9.6924287080764771e-01</leafValues></_>
        <_>
          <internalNodes>
            0 -1 177 -2.2241983970161527e-05</internalNodes>
          <leafValues>
            9.6300625801086426e-01 -1.2494433671236038e-01</leafValues></_>
        <_>
          <internalNodes>
            0 -1 17 -1.8846688908524811e-04</internalNodes>
          <leafValues>
            -1. 9.9395468831062317e-02</leafValues></_>
        <_>
          <internalNodes>
            0 -1 61 5.4203290346777067e-05</internalNodes>
          <leafValues>
            -6.1979196965694427e-02 1.</leafValues></_>
        <_>
          <internalNodes>
            0 -1 155 1.7664581537246704e-04</internalNodes>
          <leafValues>
            6.2782399356365204e-02 -1.</leafValues></_>
        <_>
          <internalNodes>
            0 -1 126 2.2434347556554712e-05</internalNodes>
          <leafValues>
            -3.5649910569190979e-02 1.</leafValues></_>
        <_>
          <internalNodes>
            0 -1 150 1.6887098317965865e-03</internalNodes>
          <leafValues>
            3.5013500601053238e-02 -1.</leafValues></_>
        <_>
          <internalNodes>
            0 -1 87 -3.3256248570978642e-04</internalNodes>
          <leafValues>
            1. -3.0424267053604126e-02</leafValues></_>
        <_>
          <internalNodes>
            0 -1 77 1.2967078946530819e-03</internalNodes>
          <leafValues>
            3.4849490039050579e-03 -1.</leafValues></_>
        <_>
          <internalNodes>
            0 -1 24 1.0303660383215174e-04</internalNodes>
          <leafValues>
            1.4108185730776768e-08 1.</leafValues></_>
        <_>
          <internalNodes>
            0 -1 20 2.7620093896985054e-03</internalNodes>
          <leafValues>
            2.2965574171394110e-03 -1.</leafValues></_>
        <_>
          <internalNodes>
            0 -1 10 -4.7508925490546972e-05</internalNodes>
          <leafValues>
            1. 4.0374965593059642e-09</leafValues></_>
        <_>
          <internalNodes>
            0 -1 8 -4.4726111809723079e-05</internalNodes>
          <leafValues>
            -1. -2.9604050322466053e-16</leafValues></_>
        <_>
          <internalNodes>
            0 -1 4 -1.7830412616604008e-05</internalNodes>
          <leafValues>
            1. -5.7710864031541723e-16</leafValues></_>
        <_>
          <internalNodes>
            0 -1 0 5.2108214003965259e-04</internalNodes>
          <leafValues>
            8.6282587655585677e-16 -1.</leafValues></_>
        <_>
          <internalNodes>
            0 -1 0 5.7547772303223610e-04</internalNodes>
          <leafValues>
            -3.4630494709216801e-16 1.</leafValues></_>
        <_>
          <internalNodes>
            0 -1 0 5.2108214003965259e-04</internalNodes>
          <leafValues>
            6.0764968377809191e-16 -1.</leafValues></_>
        <_>
          <internalNodes>
            0 -1 0 5.7547772303223610e-04</internalNodes>
          <leafValues>
            -3.5729874653325918e-16 1.</leafValues></_>
        <_>
          <internalNodes>
            0 -1 0 5.2108214003965259e-04</internalNodes>
          <leafValues>
            5.5991890074427926e-16 -1.</leafValues></_>
        <_>
          <internalNodes>
            0 -1 0 5.7547772303223610e-04</internalNodes>
          <leafValues>
            -4.1226779667827426e-16 1.</leafValues></_>
        <_>
          <internalNodes>
            0 -1 0 5.2108214003965259e-04</internalNodes>
          <leafValues>
            3.4696613571683879e-16 -1.</leafValues></_>
        <_>
          <internalNodes>
            0 -1 0 5.7547772303223610e-04</internalNodes>
          <leafValues>
            -1.2038219652417696e-15 1.</leafValues></_>
        <_>
          <internalNodes>
            0 -1 0 5.2108214003965259e-04</internalNodes>
          <leafValues>
            1.2208067757792313e-15 -1.</leafValues></_>
        <_>
          <internalNodes>
            0 -1 0 5.7547772303223610e-04</internalNodes>
          <leafValues>
            -1.0645671017352025e-15 1.</leafValues></_>
        <_>
          <internalNodes>
            0 -1 0 5.2108214003965259e-04</internalNodes>
          <leafValues>
            1.2648660415636110e-15 -1.</leafValues></_>
        <_>
          <internalNodes>
            0 -1 0 5.7547772303223610e-04</internalNodes>
          <leafValues>
            -1.1561820794311092e-15 1.</leafValues></_>
        <_>
          <internalNodes>
            0 -1 0 5.2108214003965259e-04</internalNodes>
          <leafValues>
            -4.5711414135911040e-16 -1.</leafValues></_>
        <_>
          <internalNodes>
            0 -1 0 5.7547772303223610e-04</internalNodes>
          <leafValues>
            1.3687291156768149e-15 1.</leafValues></_>
        <_>
          <internalNodes>
            0 -1 0 5.2108214003965259e-04</internalNodes>
          <leafValues>
            -1.0078540107517908e-15 -1.</leafValues></_>
        <_>
          <internalNodes>
            0 -1 0 5.7547772303223610e-04</internalNodes>
          <leafValues>
            -3.8295098052217806e-16 1.</leafValues></_>
        <_>
          <internalNodes>
            0 -1 0 5.2108214003965259e-04</internalNodes>
          <leafValues>
            1.4888335171580279e-15 -1.</leafValues></_>
        <_>
          <internalNodes>
            0 -1 0 5.7547772303223610e-04</internalNodes>
          <leafValues>
            -1.0645671017352025e-15 1.</leafValues></_>
        <_>
          <internalNodes>
            0 -1 0 5.2108214003965259e-04</internalNodes>
          <leafValues>
            1.2648660415636110e-15 -1.</leafValues></_>
        <_>
          <internalNodes>
            0 -1 0 5.7547772303223610e-04</internalNodes>
          <leafValues>
            -1.1561820794311092e-15 1.</leafValues></_>
        <_>
          <internalNodes>
            0 -1 0 5.2108214003965259e-04</internalNodes>
          <leafValues>
            -4.5711414135911040e-16 -1.</leafValues></_>
        <_>
          <internalNodes>
            0 -1 0 5.7547772303223610e-04</internalNodes>
          <leafValues>
            1.3687291156768149e-15 1.</leafValues></_>
        <_>
          <internalNodes>
            0 -1 0 5.2108214003965259e-04</internalNodes>
          <leafValues>
            -1.0078540107517908e-15 -1.</leafValues></_>
        <_>
          <internalNodes>
            0 -1 0 5.7547772303223610e-04</internalNodes>
          <leafValues>
            -3.8295098052217806e-16 1.</leafValues></_>
        <_>
          <internalNodes>
            0 -1 0 5.2108214003965259e-04</internalNodes>
          <leafValues>
            1.3860288107124183e-15 -1.</leafValues></_>
        <_>
          <internalNodes>
            0 -1 0 5.7547772303223610e-04</internalNodes>
          <leafValues>
            -9.7295201816017737e-16 1.</leafValues></_>
        <_>
          <internalNodes>
            0 -1 0 5.2108214003965259e-04</internalNodes>
          <leafValues>
            1.2685376117526031e-15 -1.</leafValues></_>
        <_>
          <internalNodes>
            0 -1 0 5.7547772303223610e-04</internalNodes>
          <leafValues>
            -1.1543498412870798e-15 1.</leafValues></_>
        <_>
          <internalNodes>
            0 -1 0 5.2108214003965259e-04</internalNodes>
          <leafValues>
            1.2042846569892073e-15 -1.</leafValues></_>
        <_>
          <internalNodes>
            0 -1 0 5.7547772303223610e-04</internalNodes>
          <leafValues>
            -1.1085422994995672e-15 1.</leafValues></_>
        <_>
          <internalNodes>
            0 -1 0 5.2108214003965259e-04</internalNodes>
          <leafValues>
            -5.0484492439292305e-16 -1.</leafValues></_>
        <_>
          <internalNodes>
            0 -1 0 5.7547772303223610e-04</internalNodes>
          <leafValues>
            1.4273627479890073e-15 1.</leafValues></_>
        <_>
          <internalNodes>
            0 -1 0 5.2108214003965259e-04</internalNodes>
          <leafValues>
            -1.1106588230765189e-15 -1.</leafValues></_>
        <_>
          <internalNodes>
            0 -1 0 5.7547772303223610e-04</internalNodes>
          <leafValues>
            1.2661201797211394e-15 1.</leafValues></_>
        <_>
          <internalNodes>
            0 -1 0 5.2108214003965259e-04</internalNodes>
          <leafValues>
            -1.0519132765361705e-15 -1.</leafValues></_>
        <_>
          <internalNodes>
            0 -1 0 5.7547772303223610e-04</internalNodes>
          <leafValues>
            -3.9944167968381482e-16 1.</leafValues></_>
        <_>
          <internalNodes>
            0 -1 0 5.2108214003965259e-04</internalNodes>
          <leafValues>
            1.3713424240773312e-15 -1.</leafValues></_>
        <_>
          <internalNodes>
            0 -1 0 5.7547772303223610e-04</internalNodes>
          <leafValues>
            -1.0059334694230101e-15 1.</leafValues></_>
        <_>
          <internalNodes>
            0 -1 0 5.2108214003965259e-04</internalNodes>
          <leafValues>
            1.3217757500699041e-15 -1.</leafValues></_>
        <_>
          <internalNodes>
            0 -1 0 5.7547772303223610e-04</internalNodes>
          <leafValues>
            -1.5537915209708946e-15 1.</leafValues></_>
        <_>
          <internalNodes>
            0 -1 0 5.2108214003965259e-04</internalNodes>
          <leafValues>
            1.4447743572527667e-15 -1.</leafValues></_>
        <_>
          <internalNodes>
            0 -1 0 5.7547772303223610e-04</internalNodes>
          <leafValues>
            -1.1085422994995672e-15 1.</leafValues></_>
        <_>
          <internalNodes>
            0 -1 0 5.2108214003965259e-04</internalNodes>
          <leafValues>
            -5.0484492439292305e-16 -1.</leafValues></_>
        <_>
          <internalNodes>
            0 -1 0 5.7547772303223610e-04</internalNodes>
          <leafValues>
            1.4273627479890073e-15 1.</leafValues></_>
        <_>
          <internalNodes>
            0 -1 0 5.2108214003965259e-04</internalNodes>
          <leafValues>
            -1.1106588230765189e-15 -1.</leafValues></_>
        <_>
          <internalNodes>
            0 -1 0 5.7547772303223610e-04</internalNodes>
          <leafValues>
            1.2661201797211394e-15 1.</leafValues></_>
        <_>
          <internalNodes>
            0 -1 0 5.2108214003965259e-04</internalNodes>
          <leafValues>
            -1.1565538210158354e-15 -1.</leafValues></_>
        <_>
          <internalNodes>
            0 -1 0 5.7547772303223610e-04</internalNodes>
          <leafValues>
            -5.0021827161634246e-16 1.</leafValues></_>
        <_>
          <internalNodes>
            0 -1 0 5.2108214003965259e-04</internalNodes>
          <leafValues>
            1.3860288107124183e-15 -1.</leafValues></_>
        <_>
          <internalNodes>
            0 -1 0 5.7547772303223610e-04</internalNodes>
          <leafValues>
            -9.9127503487518240e-16 1.</leafValues></_>
        <_>
          <internalNodes>
            0 -1 0 5.2108214003965259e-04</internalNodes>
          <leafValues>
            1.2685376117526031e-15 -1.</leafValues></_>
        <_>
          <internalNodes>
            0 -1 0 5.7547772303223610e-04</internalNodes>
          <leafValues>
            -1.0499086671873748e-15 1.</leafValues></_>
        <_>
          <internalNodes>
            0 -1 0 5.2108214003965259e-04</internalNodes>
          <leafValues>
            -4.5711414135911040e-16 -1.</leafValues></_>
        <_>
          <internalNodes>
            0 -1 0 5.7547772303223610e-04</internalNodes>
          <leafValues>
            1.4530149290383669e-15 1.</leafValues></_>
        <_>
          <internalNodes>
            0 -1 0 5.2108214003965259e-04</internalNodes>
          <leafValues>
            -1.0996440066304240e-15 -1.</leafValues></_>
        <_>
          <internalNodes>
            0 -1 0 5.7547772303223610e-04</internalNodes>
          <leafValues>
            -4.4524922147132738e-16 1.</leafValues></_>
        <_>
          <internalNodes>
            0 -1 0 5.2108214003965259e-04</internalNodes>
          <leafValues>
            1.4300879706176796e-15 -1.</leafValues></_>
        <_>
          <internalNodes>
            0 -1 0 5.7547772303223610e-04</internalNodes>
          <leafValues>
            -1.0059334694230101e-15 1.</leafValues></_>
        <_>
          <internalNodes>
            0 -1 0 5.2108214003965259e-04</internalNodes>
          <leafValues>
            1.3217757500699041e-15 -1.</leafValues></_>
        <_>
          <internalNodes>
            0 -1 0 5.7547772303223610e-04</internalNodes>
          <leafValues>
            -1.5537915209708946e-15 1.</leafValues></_>
        <_>
          <internalNodes>
            0 -1 0 5.2108214003965259e-04</internalNodes>
          <leafValues>
            1.4447743572527667e-15 -1.</leafValues></_>
        <_>
          <internalNodes>
            0 -1 0 5.7547772303223610e-04</internalNodes>
          <leafValues>
            -1.1085422994995672e-15 1.</leafValues></_>
        <_>
          <internalNodes>
            0 -1 0 5.2108214003965259e-04</internalNodes>
          <leafValues>
            -5.0484492439292305e-16 -1.</leafValues></_>
        <_>
          <internalNodes>
            0 -1 0 5.7547772303223610e-04</internalNodes>
          <leafValues>
            1.4273627479890073e-15 1.</leafValues></_>
        <_>
          <internalNodes>
            0 -1 0 5.2108214003965259e-04</internalNodes>
          <leafValues>
            -1.0078540107517908e-15 -1.</leafValues></_>
        <_>
          <internalNodes>
            0 -1 0 5.7547772303223610e-04</internalNodes>
          <leafValues>
            -3.8295098052217806e-16 1.</leafValues></_>
        <_>
          <internalNodes>
            0 -1 0 5.2108214003965259e-04</internalNodes>
          <leafValues>
            1.3860288107124183e-15 -1.</leafValues></_>
        <_>
          <internalNodes>
            0 -1 0 5.7547772303223610e-04</internalNodes>
          <leafValues>
            -9.9127503487518240e-16 1.</leafValues></_>
        <_>
          <internalNodes>
            0 -1 0 5.2108214003965259e-04</internalNodes>
          <leafValues>
            1.2685376117526031e-15 -1.</leafValues></_>
        <_>
          <internalNodes>
            0 -1 0 5.7547772303223610e-04</internalNodes>
          <leafValues>
            -1.0499086671873748e-15 1.</leafValues></_>
        <_>
          <internalNodes>
            0 -1 0 5.2108214003965259e-04</internalNodes>
          <leafValues>
            -4.5711414135911040e-16 -1.</leafValues></_>
        <_>
          <internalNodes>
            0 -1 0 5.7547772303223610e-04</internalNodes>
          <leafValues>
            1.4530149290383669e-15 1.</leafValues></_>
        <_>
          <internalNodes>
            0 -1 0 5.2108214003965259e-04</internalNodes>
          <leafValues>
            -9.9683919430569590e-16 -1.</leafValues></_>
        <_>
          <internalNodes>
            0 -1 0 5.7547772303223610e-04</internalNodes>
          <leafValues>
            -4.3059081339327928e-16 1.</leafValues></_>
        <_>
          <internalNodes>
            0 -1 0 5.2108214003965259e-04</internalNodes>
          <leafValues>
            1.3401338127731017e-15 -1.</leafValues></_>
        <_>
          <internalNodes>
            0 -1 0 5.7547772303223610e-04</internalNodes>
          <leafValues>
            -1.0370825766626950e-15 1.</leafValues></_>
        <_>
          <internalNodes>
            0 -1 0 5.2108214003965259e-04</internalNodes>
          <leafValues>
            -4.4242772825424370e-16 -1.</leafValues></_>
        <_>
          <internalNodes>
            0 -1 0 5.7547772303223610e-04</internalNodes>
          <leafValues>
            1.4859963803011997e-15 1.</leafValues></_></weakClassifiers></_>
    <!-- stage 19 -->
    <_>
      <maxWeakCount>19</maxWeakCount>
      <stageThreshold>-2.2662997245788574e+00</stageThreshold>
      <weakClassifiers>
        <_>
          <internalNodes>
            0 -1 160 -8.2625294453464448e-05</internalNodes>
          <leafValues>
            1. -9.0740740299224854e-01</leafValues></_>
        <_>
          <internalNodes>
            0 -1 116 -1.4957337407395244e-04</internalNodes>
          <leafValues>
            9.5185178518295288e-01 -8.5383909940719604e-01</leafValues></_>
        <_>
          <internalNodes>
            0 -1 156 -2.5119785277638584e-05</internalNodes>
          <leafValues>
            1. -4.5171710848808289e-01</leafValues></_>
        <_>
          <internalNodes>
            0 -1 70 4.9857793783303350e-05</internalNodes>
          <leafValues>
            -1.1408496648073196e-01 9.6692013740539551e-01</leafValues></_>
        <_>
          <internalNodes>
            0 -1 78 2.2021861746907234e-02</internalNodes>
          <leafValues>
            1.2737275660037994e-01 -1.</leafValues></_>
        <_>
          <internalNodes>
            0 -1 106 -2.4928897619247437e-04</internalNodes>
          <leafValues>
            1. -9.8871171474456787e-02</leafValues></_>
        <_>
          <internalNodes>
            0 -1 99 2.2434347556554712e-05</internalNodes>
          <leafValues>
            -2.3007962852716446e-02 1.</leafValues></_>
        <_>
          <internalNodes>
            0 -1 90 -1.8274258763995022e-04</internalNodes>
          <leafValues>
            -1. 4.4586960226297379e-02</leafValues></_>
        <_>
          <internalNodes>
            0 -1 34 3.3998501021414995e-04</internalNodes>
          <leafValues>
            -1.2143176980316639e-02 1.</leafValues></_>
        <_>
          <internalNodes>
            0 -1 47 1.3762047514319420e-02</internalNodes>
          <leafValues>
            1.9095454365015030e-02 -1.</leafValues></_>
        <_>
          <internalNodes>
            0 -1 31 5.9829349629580975e-04</internalNodes>
          <leafValues>
            2.3214738575916272e-06 1.</leafValues></_>
        <_>
          <internalNodes>
            0 -1 15 -1.4345858944579959e-03</internalNodes>
          <leafValues>
            -1. 3.7136648315936327e-03</leafValues></_>
        <_>
          <internalNodes>
            0 -1 9 -1.1120991985080764e-05</internalNodes>
          <leafValues>
            1. -4.9725328572094440e-03</leafValues></_>
        <_>
          <internalNodes>
            0 -1 25 3.1490167602896690e-03</internalNodes>
          <leafValues>
            4.9725091084837914e-03 -1.</leafValues></_>
        <_>
          <internalNodes>
            0 -1 26 3.1506438972428441e-04</internalNodes>
          <leafValues>
            4.0983771043556771e-08 1.</leafValues></_>
        <_>
          <internalNodes>
            0 -1 3 1.7891866154968739e-03</internalNodes>
          <leafValues>
            8.9680057982846357e-16 -1.</leafValues></_>
        <_>
          <internalNodes>
            0 -1 2 -1.8274258763995022e-04</internalNodes>
          <leafValues>
            -1. 3.4384976606816053e-03</leafValues></_>
        <_>
          <internalNodes>
            0 -1 0 3.9886235026642680e-04</internalNodes>
          <leafValues>
            -3.4384841565042734e-03 1.</leafValues></_>
        <_>
          <internalNodes>
            0 -1 11 -3.7776109820697457e-05</internalNodes>
          <leafValues>
            1. -1.3551360922292588e-08</leafValues></_></weakClassifiers></_></stages>
  <features>
    <_>
      <rects>
        <_>
          0 0 2 1 -1.</_>
        <_>
          1 0 1 1 2.</_></rects>
      <tilted>0</tilted></_>
    <_>
      <rects>
        <_>
          0 0 1 2 -1.</_>
        <_>
          0 1 1 1 2.</_></rects>
      <tilted>0</tilted></_>
    <_>
      <rects>
        <_>
          0 0 3 1 -1.</_>
        <_>
          1 0 1 1 3.</_></rects>
      <tilted>0</tilted></_>
    <_>
      <rects>
        <_>
          0 0 1 3 -1.</_>
        <_>
          0 1 1 1 3.</_></rects>
      <tilted>0</tilted></_>
    <_>
      <rects>
        <_>
          0 0 2 2 -1.</_>
        <_>
          0 0 1 1 2.</_>
        <_>
          1 1 1 1 2.</_></rects>
      <tilted>0</tilted></_>
    <_>
      <rects>
        <_>
          0 0 2 2 -1.</_>
        <_>
          1 0 1 2 2.</_></rects>
      <tilted>0</tilted></_>
    <_>
      <rects>
        <_>
          0 0 1 4 -1.</_>
        <_>
          0 2 1 2 2.</_></rects>
      <tilted>0</tilted></_>
    <_>
      <rects>
        <_>
          0 0 1 6 -1.</_>
        <_>
          0 3 1 3 2.</_></rects>
      <tilted>0</tilted></_>
    <_>
      <rects>
        <_>
          0 0 3 6 -1.</_>
        <_>
          1 0 1 6 3.</_></rects>
      <tilted>0</tilted></_>
    <_>
      <rects>
        <_>
          0 0 3 9 -1.</_>
        <_>
